{
  "features_info":
    {
      "float_features":
        [
          {
            "borders":
              [
                0.79633522033691406
              ],
            "feature_id":"",
            "feature_index":0,
            "flat_feature_index":0,
            "has_nans":false,
            "nan_value_treatment":"AsIs"
          },
          {
            "borders":
              [
                -0.26690670847892761
              ],
            "feature_id":"",
            "feature_index":1,
            "flat_feature_index":1,
            "has_nans":false,
            "nan_value_treatment":"AsIs"
          },
          {
            "borders":
              [
              ],
            "feature_id":"",
            "feature_index":2,
            "flat_feature_index":2,
            "has_nans":false,
            "nan_value_treatment":"AsIs"
          },
          {
            "borders":
              [
                -0.22517243027687073,
                0.3004736602306366
              ],
            "feature_id":"",
            "feature_index":3,
            "flat_feature_index":3,
            "has_nans":false,
            "nan_value_treatment":"AsIs"
          }
        ]
    },
  "model_info":
    {
      "catboost_version_info":"Git info:\n    Commit: b1bd2a6d77219e82a1acfcedfccb8e6f6c1ee084\n    Branch: tags/v1.2.10\n    Author: akhropov <akhropov@yandex-team.com>\n    Summary: CatBoost release 1.2.10. commit_hash:f8e0038b19555d36a9ba7b81b6730254b352960d\n    git-svn info:\n    Last Changed Rev: 9293085\n\nOther info:\n    Build by: Unknown user\n    Top src dir: /src/catboost\n",
      "class_params":
        {
          "class_label_type":"Integer",
          "class_names":
            [
              0,
              1,
              2
            ],
          "class_to_label":
            [
              0,
              1,
              2
            ],
          "classes_count":0
        },
      "model_guid":"b08ce782-87391be9-e4f2bf54-a87733e4",
      "output_options":"{\"name\":\"experiment\",\"verbose\":0,\"test_error_log\":\"test_error.tsv\",\"json_log\":\"catboost_training.json\",\"result_model_file\":\"model\",\"roc_file\":\"\",\"eval_file_name\":\"\",\"use_best_model\":false,\"allow_writing_files\":true,\"prediction_type\":[\"RawFormulaVal\"],\"fstr_internal_file\":\"\",\"output_columns\":[\"SampleId\",\"RawFormulaVal\",\"Label\"],\"snapshot_interval\":600,\"time_left_log\":\"time_left.tsv\",\"fstr_type\":\"FeatureImportance\",\"profile_log\":\"catboost_profile.log\",\"train_dir\":\"catboost_info\",\"learn_error_log\":\"learn_error.tsv\",\"training_options_file\":\"\",\"snapshot_file\":\"experiment.cbsnapshot\",\"save_snapshot\":false,\"model_format\":[\"CatboostBinary\"],\"final_feature_calcer_computation_mode\":\"Default\",\"metric_period\":1,\"output_borders\":\"\",\"final_ctr_computation_mode\":\"Default\",\"best_model_min_trees\":1,\"fstr_regular_file\":\"\"}",
      "params":
        {
          "boosting_options":
            {
              "approx_on_full_history":false,
              "boost_from_average":false,
              "boosting_type":"Plain",
              "fold_len_multiplier":2,
              "fold_permutation_block":0,
              "iterations":5,
              "learning_rate":0.10000000149011612,
              "model_shrink_mode":"Constant",
              "model_shrink_rate":0,
              "od_config":
                {
                  "stop_pvalue":0,
                  "type":"None",
                  "wait_iterations":20
                },
              "permutation_count":4,
              "posterior_sampling":false
            },
          "cat_feature_params":
            {
              "combinations_ctrs":
                [
                  {
                    "ctr_binarization":
                      {
                        "border_count":15,
                        "border_type":"Uniform"
                      },
                    "ctr_type":"Borders",
                    "prior_estimation":"No",
                    "priors":
                      [
                        [
                          0,
                          1
                        ],
                        [
                          0.5,
                          1
                        ],
                        [
                          1,
                          1
                        ]
                      ],
                    "target_binarization":
                      {
                        "border_count":2,
                        "border_type":"MinEntropy"
                      }
                  },
                  {
                    "ctr_binarization":
                      {
                        "border_count":15,
                        "border_type":"Uniform"
                      },
                    "ctr_type":"Counter",
                    "prior_estimation":"No",
                    "priors":
                      [
                        [
                          0,
                          1
                        ]
                      ]
                  }
                ],
              "counter_calc_method":"SkipTest",
              "ctr_leaf_count_limit":18446744073709551615,
              "max_ctr_complexity":1,
              "one_hot_max_size":2,
              "per_feature_ctrs":
                {
                },
              "simple_ctrs":
                [
                  {
                    "ctr_binarization":
                      {
                        "border_count":15,
                        "border_type":"Uniform"
                      },
                    "ctr_type":"Borders",
                    "prior_estimation":"No",
                    "priors":
                      [
                        [
                          0,
                          1
                        ],
                        [
                          0.5,
                          1
                        ],
                        [
                          1,
                          1
                        ]
                      ],
                    "target_binarization":
                      {
                        "border_count":2,
                        "border_type":"MinEntropy"
                      }
                  },
                  {
                    "ctr_binarization":
                      {
                        "border_count":15,
                        "border_type":"Uniform"
                      },
                    "ctr_type":"Counter",
                    "prior_estimation":"No",
                    "priors":
                      [
                        [
                          0,
                          1
                        ]
                      ]
                  }
                ],
              "store_all_simple_ctr":false,
              "target_binarization":
                {
                  "border_count":1,
                  "border_type":"MinEntropy"
                }
            },
          "data_processing_options":
            {
              "allow_const_label":false,
              "auto_class_weights":"None",
              "class_names":
                [
                  0,
                  1,
                  2
                ],
              "class_weights":
                [
                ],
              "classes_count":0,
              "dev_default_value_fraction_for_sparse":0.82999998331069946,
              "dev_group_features":false,
              "dev_leafwise_scoring":false,
              "dev_sparse_array_indexing":"Indices",
              "embedding_processing_options":
                {
                  "embedding_processing":
                    {
                      "default":
                        [
                          "LDA",
                          "KNN"
                        ]
                    }
                },
              "eval_fraction":0,
              "float_features_binarization":
                {
                  "border_count":254,
                  "border_type":"GreedyLogSum",
                  "dev_max_subset_size_for_build_borders":200000,
                  "nan_mode":"Min"
                },
              "force_unit_auto_pair_weights":false,
              "has_time":false,
              "ignored_features":
                [
                ],
              "per_float_feature_quantization":
                {
                },
              "target_border":null,
              "text_processing_options":
                {
                  "dictionaries":
                    [
                      {
                        "dictionary_id":"BiGram",
                        "end_of_sentence_token_policy":"Skip",
                        "end_of_word_token_policy":"Insert",
                        "gram_order":"2",
                        "max_dictionary_size":"50000",
                        "occurrence_lower_bound":"1",
                        "skip_step":"0",
                        "start_token_id":"0",
                        "token_level_type":"Word"
                      },
                      {
                        "dictionary_id":"Word",
                        "end_of_sentence_token_policy":"Skip",
                        "end_of_word_token_policy":"Insert",
                        "gram_order":"1",
                        "max_dictionary_size":"50000",
                        "occurrence_lower_bound":"1",
                        "skip_step":"0",
                        "start_token_id":"0",
                        "token_level_type":"Word"
                      }
                    ],
                  "feature_processing":
                    {
                      "default":
                        [
                          {
                            "dictionaries_names":
                              [
                                "BiGram",
                                "Word"
                              ],
                            "feature_calcers":
                              [
                                "BoW"
                              ],
                            "tokenizers_names":
                              [
                                "Space"
                              ]
                          },
                          {
                            "dictionaries_names":
                              [
                                "Word"
                              ],
                            "feature_calcers":
                              [
                                "NaiveBayes"
                              ],
                            "tokenizers_names":
                              [
                                "Space"
                              ]
                          }
                        ]
                    },
                  "tokenizers":
                    [
                      {
                        "delimiter":" ",
                        "languages":
                          [
                          ],
                        "lemmatizing":"0",
                        "lowercasing":"0",
                        "number_process_policy":"LeaveAsIs",
                        "number_token":"🔢",
                        "separator_type":"ByDelimiter",
                        "skip_empty":"1",
                        "split_by_set":"0",
                        "subtokens_policy":"SingleToken",
                        "token_types":
                          [
                            "Number",
                            "Unknown",
                            "Word"
                          ],
                        "tokenizer_id":"Space"
                      }
                    ]
                }
            },
          "detailed_profile":false,
          "flat_params":
            {
              "boost_from_average":false,
              "bootstrap_type":"No",
              "depth":2,
              "iterations":5,
              "l2_leaf_reg":3,
              "leaf_estimation_iterations":1,
              "leaf_estimation_method":"Newton",
              "learning_rate":0.10000000000000001,
              "loss_function":"MultiClassOneVsAll",
              "random_seed":0,
              "random_strength":0,
              "score_function":"Cosine",
              "thread_count":1,
              "verbose":0
            },
          "logging_level":"Silent",
          "loss_function":
            {
              "params":
                {
                },
              "type":"MultiClassOneVsAll"
            },
          "metadata":
            {
            },
          "metrics":
            {
              "custom_metrics":
                [
                ],
              "eval_metric":
                {
                  "params":
                    {
                    },
                  "type":"MultiClassOneVsAll"
                },
              "objective_metric":
                {
                  "params":
                    {
                    },
                  "type":"MultiClassOneVsAll"
                }
            },
          "pool_metainfo_options":
            {
              "tags":
                {
                }
            },
          "random_seed":0,
          "system_options":
            {
              "file_with_hosts":"hosts.txt",
              "node_port":0,
              "node_type":"SingleHost",
              "thread_count":1,
              "used_ram_limit":""
            },
          "task_type":"CPU",
          "tree_learner_options":
            {
              "bayesian_matrix_reg":0.10000000149011612,
              "bootstrap":
                {
                  "type":"No"
                },
              "depth":2,
              "dev_efb_max_buckets":1024,
              "dev_leafwise_approxes":false,
              "dev_score_calc_obj_block_size":5000000,
              "grow_policy":"SymmetricTree",
              "l2_leaf_reg":3,
              "leaf_estimation_backtracking":"AnyImprovement",
              "leaf_estimation_iterations":1,
              "leaf_estimation_method":"Newton",
              "max_leaves":4,
              "min_data_in_leaf":1,
              "model_size_reg":0.5,
              "monotone_constraints":
                {
                },
              "penalties":
                {
                  "feature_weights":
                    {
                    },
                  "first_feature_use_penalties":
                    {
                    },
                  "penalties_coefficient":1,
                  "per_object_feature_penalties":
                    {
                    }
                },
              "random_score_type":"NormalWithModelSizeDecrease",
              "random_strength":0,
              "rsm":1,
              "sampling_frequency":"PerTree",
              "score_function":"Cosine",
              "sparse_features_conflict_fraction":0
            }
        },
      "train_finish_time":"2026-06-16T09:51:56Z",
      "training":"{\"metrics\":{\"learn_best_error\":{\"MultiClassOneVsAll\":0.5800123251678264},\"test_metrics_history\":[],\"learn_metrics_history\":[{\"MultiClassOneVsAll\":0.6656927589280544},{\"MultiClassOneVsAll\":0.6416817138618104},{\"MultiClassOneVsAll\":0.6189235083736467},{\"MultiClassOneVsAll\":0.5984210548625906},{\"MultiClassOneVsAll\":0.5800123251678264}],\"test_best_error\":[]}}"
    },
  "oblivious_trees":
    [
      {
        "leaf_values":
          [
            -0.066666667660077408,
            0.04761904832862672,
            -0.066666667660077408,
            -0.090909092263741928,
            -0.072727273810993545,
            0.072727273810993545,
            0.07500000111758709,
            -0.087500001303851604,
            -0.11250000167638063,
            -0.095652175338371948,
            -0.0086956523034883576,
            0.0086956523034883576
          ],
        "leaf_weights":
          [
            9,
            10,
            20,
            11
          ],
        "splits":
          [
            {
              "border":0.3004736602306366,
              "float_feature_index":3,
              "split_index":3,
              "split_type":"FloatFeature"
            },
            {
              "border":-0.26690670847892761,
              "float_feature_index":1,
              "split_index":1,
              "split_type":"FloatFeature"
            }
          ]
      },
      {
        "leaf_values":
          [
            0.080713937411808073,
            -0.079901677765753951,
            -0.11633747570584918,
            -0.11298916147441428,
            -0.009546460882448175,
            -0.00088036430216480849,
            -0.049233566391918338,
            0.024659404586127465,
            -0.023057428882502971,
            -0.057078063860471734,
            -0.057739254260635413,
            0.058919245659582717
          ],
        "leaf_weights":
          [
            19,
            22,
            4,
            5
          ],
        "splits":
          [
            {
              "border":-0.22517243027687073,
              "float_feature_index":3,
              "split_index":2,
              "split_type":"FloatFeature"
            },
            {
              "border":0.79633522033691406,
              "float_feature_index":0,
              "split_index":0,
              "split_type":"FloatFeature"
            }
          ]
      },
      {
        "leaf_values":
          [
            -0.062756277104569574,
            0.046517070340920626,
            -0.061915594644810522,
            -0.082293035015638116,
            -0.068832111113531713,
            0.069241935868943005,
            0.067536793129557307,
            -0.078193326344506722,
            -0.10049848592158123,
            -0.086825105376220263,
            -0.0071961810539873878,
            0.0075433837326276841
          ],
        "leaf_weights":
          [
            9,
            10,
            20,
            11
          ],
        "splits":
          [
            {
              "border":0.3004736602306366,
              "float_feature_index":3,
              "split_index":3,
              "split_type":"FloatFeature"
            },
            {
              "border":-0.26690670847892761,
              "float_feature_index":1,
              "split_index":1,
              "split_type":"FloatFeature"
            }
          ]
      },
      {
        "leaf_values":
          [
            -0.060177723229631629,
            0.044547005403800431,
            -0.059386170174811286,
            -0.078937868088660698,
            -0.065837169945470883,
            0.066219473394858827,
            0.063542092373605474,
            -0.073678867107514048,
            -0.095025297301563214,
            -0.083115370966774613,
            -0.0068525138401867346,
            0.0071830531077305181
          ],
        "leaf_weights":
          [
            9,
            10,
            20,
            11
          ],
        "splits":
          [
            {
              "border":0.3004736602306366,
              "float_feature_index":3,
              "split_index":3,
              "split_type":"FloatFeature"
            },
            {
              "border":-0.26690670847892761,
              "float_feature_index":1,
              "split_index":1,
              "split_type":"FloatFeature"
            }
          ]
      },
      {
        "leaf_values":
          [
            0.070985568116356729,
            -0.06899766712807924,
            -0.10056898190070625,
            -0.099062622528133096,
            -0.0049879912907243992,
            -0.0025470045270713031,
            -0.046662758264465844,
            0.023326661744570223,
            -0.019078944511202778,
            -0.052575758093085137,
            -0.054258821085015993,
            0.05739561055116299
          ],
        "leaf_weights":
          [
            19,
            22,
            4,
            5
          ],
        "splits":
          [
            {
              "border":-0.22517243027687073,
              "float_feature_index":3,
              "split_index":2,
              "split_type":"FloatFeature"
            },
            {
              "border":0.79633522033691406,
              "float_feature_index":0,
              "split_index":0,
              "split_type":"FloatFeature"
            }
          ]
      }
    ],
  "scale_and_bias":
    [
      1,
      [
        0,
        0,
        0
      ]
    ]
}